digraph Tree {
node [shape=box, style="filled, rounded", color="black", fontname="helvetica"] ;
edge [fontname="helvetica"] ;
0 [label=<AVG_VAL_DIST &le; 0.011<br/>entropy = 7.671<br/>samples = 808<br/>value = [13.0, 1.0, 44.0, 12.0, 1.0, 1.0, 2.0, 2.0, 1.0, 1.0<br/>1.0, 1.0, 1.0, 2.0, 1.0, 1.0, 1.0, 1.0, 1.0, 1.0<br/>1.0, 1.0, 1.0, 7.0, 3.0, 1.0, 1.0, 1.0, 1.0, 1.0<br/>2.0, 2.0, 1.0, 2.0, 1.0, 2.0, 2.0, 1.0, 1.0, 2.0<br/>1.0, 1.0, 1.0, 4.0, 6.0, 1.0, 1.0, 2.0, 1.0, 1.0<br/>1.0, 1.0, 1.0, 1.0, 1.0, 1.0, 1.0, 2.0, 1.0, 1.0<br/>3.0, 1.0, 1.0, 34.0, 1.0, 1.0, 1.0, 1.0, 1.0, 1.0<br/>1.0, 4.0, 2.0, 1.0, 1.0, 2.0, 1.0, 1.0, 1.0, 3.0<br/>2.0, 1.0, 1.0, 3.0, 9.0, 1.0, 1.0, 1.0, 1.0, 1.0<br/>2.0, 1.0, 2.0, 2.0, 2.0, 2.0, 1.0, 1.0, 2.0, 1.0<br/>1.0, 2.0, 3.0, 12.0, 1.0, 1.0, 1.0, 1.0, 1.0, 1.0<br/>1.0, 1.0, 1.0, 3.0, 1.0, 1.0, 1.0, 1.0, 1.0, 1.0<br/>1.0, 1.0, 1.0, 10.0, 1.0, 1.0, 1.0, 1.0, 2.0, 1.0<br/>1.0, 1.0, 1.0, 1.0, 1.0, 2.0, 1.0, 1.0, 1.0, 1.0<br/>2.0, 1.0, 1.0, 10.0, 3.0, 1.0, 1.0, 1.0, 1.0, 1.0<br/>2.0, 1.0, 1.0, 1.0, 1.0, 1.0, 1.0, 1.0, 2.0, 1.0<br/>1.0, 1.0, 1.0, 51.0, 4.0, 1.0, 1.0, 1.0, 1.0, 1.0<br/>1.0, 1.0, 3.0, 1.0, 1.0, 1.0, 2.0, 1.0, 1.0, 2.0<br/>2.0, 1.0, 1.0, 8.0, 16.0, 1.0, 1.0, 1.0, 1.0, 1.0<br/>1.0, 1.0, 1.0, 2.0, 2.0, 1.0, 1.0, 1.0, 1.0, 2.0<br/>1.0, 2.0, 1.0, 15.0, 1.0, 1.0, 1.0, 1.0, 1.0, 1.0<br/>1.0, 1.0, 1.0, 1.0, 1.0, 1.0, 1.0, 1.0, 1.0, 1.0<br/>1.0, 1.0, 1.0, 3.0, 1.0, 1.0, 1.0, 1.0, 2.0, 1.0<br/>1.0, 2.0, 1.0, 1.0, 1.0, 1.0, 1.0, 1.0, 1.0, 1.0<br/>1.0, 1.0, 1.0, 2.0, 4.0, 1.0, 1.0, 2.0, 1.0, 1.0<br/>1.0, 1.0, 1.0, 2.0, 1.0, 1.0, 1.0, 1.0, 2.0, 1.0<br/>1.0, 1.0, 1.0, 16.0, 1.0, 1.0, 1.0, 1.0, 1.0, 1.0<br/>1.0, 3.0, 2.0, 1.0, 1.0, 1.0, 1.0, 1.0, 1.0, 5.0<br/>1.0, 1.0, 1.0, 2.0, 5.0, 1.0, 1.0, 1.0, 1.0, 2.0<br/>1.0, 1.0, 1.0, 1.0, 1.0, 1.0, 1.0, 3.0, 1.0, 1.0<br/>1.0, 4.0, 3.0, 13.0, 1.0, 1.0, 1.0, 1.0, 1.0, 1.0<br/>1.0, 1.0, 1.0, 1.0, 1.0, 1.0, 1.0, 1.0, 1.0, 1.0<br/>1.0, 1.0, 1.0, 9.0, 3.0, 1.0, 1.0, 1.0, 1.0, 1.0<br/>2.0, 1.0, 1.0, 1.0, 1.0, 1.0, 1.0, 1.0, 1.0, 1.0<br/>1.0, 1.0, 1.0, 7.0, 2.0, 1.0, 1.0, 1.0, 1.0, 1.0<br/>1.0, 1.0, 1.0, 1.0, 1.0, 1.0, 1.0, 2.0, 2.0, 1.0<br/>1.0, 1.0, 1.0, 12.0, 2.0, 1.0, 1.0, 1.0, 1.0, 1.0<br/>1.0, 1.0, 4.0, 1.0, 2.0, 1.0, 1.0, 1.0, 1.0, 3.0<br/>5.0, 1.0, 1.0, 6.0, 8.0, 1.0, 1.0, 1.0, 1.0, 1.0<br/>1.0, 1.0, 1.0, 2.0, 1.0, 1.0, 1.0, 1.0, 1.0, 1.0<br/>1.0, 2.0, 1.0]<br/>class = 1 0 1 4 0 0 0 0>, fillcolor="#fdfffe"] ;
1 [label=<entropy = 8.651<br/>samples = 406<br/>value = [1, 1, 1, 1, 1, 1, 1, 1, 1, 1, 1, 1, 1, 1<br/>1, 1, 1, 1, 1, 1, 1, 1, 1, 1, 1, 1, 1, 1<br/>1, 1, 1, 1, 1, 1, 1, 1, 1, 1, 1, 1, 1, 1<br/>1, 1, 1, 1, 1, 1, 1, 1, 1, 1, 1, 1, 1, 1<br/>1, 1, 1, 1, 1, 1, 1, 1, 1, 1, 1, 1, 1, 1<br/>1, 1, 1, 1, 1, 1, 1, 1, 1, 1, 1, 1, 1, 1<br/>1, 1, 1, 1, 1, 1, 1, 1, 1, 1, 1, 1, 1, 1<br/>1, 1, 1, 1, 2, 1, 1, 1, 1, 1, 1, 1, 1, 1<br/>1, 1, 1, 1, 1, 1, 1, 1, 1, 1, 1, 1, 1, 1<br/>1, 1, 1, 1, 1, 1, 1, 1, 1, 1, 1, 1, 1, 1<br/>1, 1, 1, 1, 1, 1, 1, 1, 1, 1, 2, 1, 1, 1<br/>1, 1, 1, 1, 1, 1, 1, 1, 1, 1, 1, 1, 1, 1<br/>1, 1, 1, 1, 1, 1, 1, 1, 1, 1, 1, 1, 1, 1<br/>1, 1, 1, 1, 1, 1, 1, 1, 1, 1, 1, 1, 1, 1<br/>1, 1, 1, 1, 1, 1, 1, 1, 1, 1, 1, 1, 1, 1<br/>1, 1, 1, 1, 1, 1, 1, 1, 1, 1, 1, 1, 1, 1<br/>1, 1, 1, 1, 1, 1, 1, 1, 1, 1, 1, 1, 1, 1<br/>1, 1, 1, 1, 1, 1, 1, 1, 1, 1, 1, 1, 1, 1<br/>1, 1, 1, 1, 1, 1, 1, 1, 1, 1, 1, 1, 1, 1<br/>1, 1, 1, 1, 1, 1, 1, 1, 1, 1, 1, 1, 1, 1<br/>1, 1, 1, 1, 1, 1, 1, 1, 1, 1, 1, 1, 1, 1<br/>1, 1, 1, 1, 1, 1, 1, 1, 1, 1, 1, 1, 1, 1<br/>1, 1, 1, 1, 1, 1, 1, 1, 1, 1, 1, 1, 1, 1<br/>1, 1, 1, 1, 1, 1, 1, 1, 1, 1, 1, 1, 1, 1<br/>1, 1, 1, 1, 1, 1, 1, 1, 1, 1, 1, 1, 1, 1<br/>1, 1, 1, 1, 1, 1, 1, 1, 1, 1, 1, 1, 1, 1<br/>1, 1, 1, 1, 1, 1, 1, 1, 2, 1, 1, 1, 1, 1<br/>1, 1, 1, 1, 1, 1, 1, 1, 1, 1, 1, 1, 1, 1<br/>1, 1, 1, 1, 1, 1, 1, 1, 1, 1, 1]<br/>class = 1 0 0 5 5 1 1 0>, fillcolor="#ffffff"] ;
0 -> 1 [labeldistance=2.5, labelangle=45, headlabel="True"] ;
2 [label=<M &le; 3.5<br/>entropy = 5.35<br/>samples = 402<br/>value = [12.0, 0.0, 43.0, 11.0, 0.0, 0.0, 1.0, 1.0, 0.0, 0.0<br/>0.0, 0.0, 0.0, 1.0, 0.0, 0.0, 0.0, 0.0, 0.0, 0.0<br/>0.0, 0.0, 0.0, 6.0, 2.0, 0.0, 0.0, 0.0, 0.0, 0.0<br/>1.0, 1.0, 0.0, 1.0, 0.0, 1.0, 1.0, 0.0, 0.0, 1.0<br/>0.0, 0.0, 0.0, 3.0, 5.0, 0.0, 0.0, 1.0, 0.0, 0.0<br/>0.0, 0.0, 0.0, 0.0, 0.0, 0.0, 0.0, 1.0, 0.0, 0.0<br/>2.0, 0.0, 0.0, 33.0, 0.0, 0.0, 0.0, 0.0, 0.0, 0.0<br/>0.0, 3.0, 1.0, 0.0, 0.0, 1.0, 0.0, 0.0, 0.0, 2.0<br/>1.0, 0.0, 0.0, 2.0, 8.0, 0.0, 0.0, 0.0, 0.0, 0.0<br/>1.0, 0.0, 1.0, 1.0, 1.0, 1.0, 0.0, 0.0, 1.0, 0.0<br/>0.0, 1.0, 1.0, 11.0, 0.0, 0.0, 0.0, 0.0, 0.0, 0.0<br/>0.0, 0.0, 0.0, 2.0, 0.0, 0.0, 0.0, 0.0, 0.0, 0.0<br/>0.0, 0.0, 0.0, 9.0, 0.0, 0.0, 0.0, 0.0, 1.0, 0.0<br/>0.0, 0.0, 0.0, 0.0, 0.0, 1.0, 0.0, 0.0, 0.0, 0.0<br/>1.0, 0.0, 0.0, 9.0, 2.0, 0.0, 0.0, 0.0, 0.0, 0.0<br/>0.0, 0.0, 0.0, 0.0, 0.0, 0.0, 0.0, 0.0, 1.0, 0.0<br/>0.0, 0.0, 0.0, 50.0, 3.0, 0.0, 0.0, 0.0, 0.0, 0.0<br/>0.0, 0.0, 2.0, 0.0, 0.0, 0.0, 1.0, 0.0, 0.0, 1.0<br/>1.0, 0.0, 0.0, 7.0, 15.0, 0.0, 0.0, 0.0, 0.0, 0.0<br/>0.0, 0.0, 0.0, 1.0, 1.0, 0.0, 0.0, 0.0, 0.0, 1.0<br/>0.0, 1.0, 0.0, 14.0, 0.0, 0.0, 0.0, 0.0, 0.0, 0.0<br/>0.0, 0.0, 0.0, 0.0, 0.0, 0.0, 0.0, 0.0, 0.0, 0.0<br/>0.0, 0.0, 0.0, 2.0, 0.0, 0.0, 0.0, 0.0, 1.0, 0.0<br/>0.0, 1.0, 0.0, 0.0, 0.0, 0.0, 0.0, 0.0, 0.0, 0.0<br/>0.0, 0.0, 0.0, 1.0, 3.0, 0.0, 0.0, 1.0, 0.0, 0.0<br/>0.0, 0.0, 0.0, 1.0, 0.0, 0.0, 0.0, 0.0, 1.0, 0.0<br/>0.0, 0.0, 0.0, 15.0, 0.0, 0.0, 0.0, 0.0, 0.0, 0.0<br/>0.0, 2.0, 1.0, 0.0, 0.0, 0.0, 0.0, 0.0, 0.0, 4.0<br/>0.0, 0.0, 0.0, 1.0, 4.0, 0.0, 0.0, 0.0, 0.0, 1.0<br/>0.0, 0.0, 0.0, 0.0, 0.0, 0.0, 0.0, 2.0, 0.0, 0.0<br/>0.0, 3.0, 2.0, 12.0, 0.0, 0.0, 0.0, 0.0, 0.0, 0.0<br/>0.0, 0.0, 0.0, 0.0, 0.0, 0.0, 0.0, 0.0, 0.0, 0.0<br/>0.0, 0.0, 0.0, 8.0, 2.0, 0.0, 0.0, 0.0, 0.0, 0.0<br/>1.0, 0.0, 0.0, 0.0, 0.0, 0.0, 0.0, 0.0, 0.0, 0.0<br/>0.0, 0.0, 0.0, 6.0, 1.0, 0.0, 0.0, 0.0, 0.0, 0.0<br/>0.0, 0.0, 0.0, 0.0, 0.0, 0.0, 0.0, 1.0, 1.0, 0.0<br/>0.0, 0.0, 0.0, 11.0, 1.0, 0.0, 0.0, 0.0, 0.0, 0.0<br/>0.0, 0.0, 2.0, 0.0, 1.0, 0.0, 0.0, 0.0, 0.0, 2.0<br/>4.0, 0.0, 0.0, 5.0, 7.0, 0.0, 0.0, 0.0, 0.0, 0.0<br/>0.0, 0.0, 0.0, 1.0, 0.0, 0.0, 0.0, 0.0, 0.0, 0.0<br/>0.0, 1.0, 0.0]<br/>class = 1 0 1 4 0 0 0 0>, fillcolor="#fbfefe"] ;
0 -> 2 [labeldistance=2.5, labelangle=-45, headlabel="False"] ;
3 [label=<entropy = 5.726<br/>samples = 139<br/>value = [3, 0, 0, 8, 0, 0, 1, 0, 0, 0, 0, 0, 0, 0<br/>0, 0, 0, 0, 0, 0, 0, 0, 0, 4, 2, 0, 0, 0<br/>0, 0, 1, 0, 0, 1, 0, 1, 1, 0, 0, 1, 0, 0<br/>0, 2, 4, 0, 0, 1, 0, 0, 0, 0, 0, 0, 0, 0<br/>0, 1, 0, 0, 1, 0, 0, 5, 0, 0, 0, 0, 0, 0<br/>0, 2, 0, 0, 0, 0, 0, 0, 0, 2, 1, 0, 0, 1<br/>3, 0, 0, 0, 0, 0, 0, 0, 1, 1, 1, 1, 0, 0<br/>1, 0, 0, 0, 1, 9, 0, 0, 0, 0, 0, 0, 0, 0<br/>0, 1, 0, 0, 0, 0, 0, 0, 0, 0, 0, 0, 0, 0<br/>0, 0, 1, 0, 0, 0, 0, 0, 0, 1, 0, 0, 0, 0<br/>1, 0, 0, 0, 1, 0, 0, 0, 0, 0, 0, 0, 0, 0<br/>0, 0, 0, 0, 1, 0, 0, 0, 0, 2, 2, 0, 0, 0<br/>0, 0, 0, 0, 1, 0, 0, 0, 1, 0, 0, 0, 0, 0<br/>0, 2, 2, 0, 0, 0, 0, 0, 0, 0, 0, 1, 1, 0<br/>0, 0, 0, 1, 0, 1, 0, 11, 0, 0, 0, 0, 0, 0<br/>0, 0, 0, 0, 0, 0, 0, 0, 0, 0, 0, 0, 0, 1<br/>0, 0, 0, 0, 0, 0, 0, 1, 0, 0, 0, 0, 0, 0<br/>0, 0, 0, 0, 0, 1, 2, 0, 0, 1, 0, 0, 0, 0<br/>0, 1, 0, 0, 0, 0, 1, 0, 0, 0, 0, 6, 0, 0<br/>0, 0, 0, 0, 0, 1, 0, 0, 0, 0, 0, 0, 0, 4<br/>0, 0, 0, 1, 2, 0, 0, 0, 0, 1, 0, 0, 0, 0<br/>0, 0, 0, 1, 0, 0, 0, 3, 1, 5, 0, 0, 0, 0<br/>0, 0, 0, 0, 0, 0, 0, 0, 0, 0, 0, 0, 0, 0<br/>0, 1, 1, 0, 0, 0, 0, 0, 1, 0, 0, 0, 0, 0<br/>0, 0, 0, 0, 0, 0, 0, 0, 1, 0, 0, 0, 0, 0<br/>0, 0, 0, 0, 0, 0, 0, 1, 1, 0, 0, 0, 0, 1<br/>0, 0, 0, 0, 0, 0, 0, 0, 2, 0, 1, 0, 0, 0<br/>0, 0, 2, 0, 0, 2, 0, 0, 0, 0, 0, 0, 0, 0<br/>0, 0, 0, 0, 0, 0, 0, 0, 0, 0, 0]<br/>class = 1 1 0 0 0 0 0 0>, fillcolor="#fcfdff"] ;
2 -> 3 ;
4 [label=<BUDGET_PERCENT_USED &le; 1.491<br/>entropy = 4.414<br/>samples = 263<br/>value = [9, 0, 43, 3, 0, 0, 0, 1, 0, 0, 0, 0, 0, 1<br/>0, 0, 0, 0, 0, 0, 0, 0, 0, 2, 0, 0, 0, 0<br/>0, 0, 0, 1, 0, 0, 0, 0, 0, 0, 0, 0, 0, 0<br/>0, 1, 1, 0, 0, 0, 0, 0, 0, 0, 0, 0, 0, 0<br/>0, 0, 0, 0, 1, 0, 0, 28, 0, 0, 0, 0, 0, 0<br/>0, 1, 1, 0, 0, 1, 0, 0, 0, 0, 0, 0, 0, 1<br/>5, 0, 0, 0, 0, 0, 1, 0, 0, 0, 0, 0, 0, 0<br/>0, 0, 0, 1, 0, 2, 0, 0, 0, 0, 0, 0, 0, 0<br/>0, 1, 0, 0, 0, 0, 0, 0, 0, 0, 0, 9, 0, 0<br/>0, 0, 0, 0, 0, 0, 0, 0, 0, 0, 0, 0, 0, 0<br/>0, 0, 0, 9, 1, 0, 0, 0, 0, 0, 0, 0, 0, 0<br/>0, 0, 0, 0, 0, 0, 0, 0, 0, 48, 1, 0, 0, 0<br/>0, 0, 0, 0, 1, 0, 0, 0, 0, 0, 0, 1, 1, 0<br/>0, 5, 13, 0, 0, 0, 0, 0, 0, 0, 0, 0, 0, 0<br/>0, 0, 0, 0, 0, 0, 0, 3, 0, 0, 0, 0, 0, 0<br/>0, 0, 0, 0, 0, 0, 0, 0, 0, 0, 0, 0, 0, 1<br/>0, 0, 0, 0, 1, 0, 0, 0, 0, 0, 0, 0, 0, 0<br/>0, 0, 0, 0, 0, 0, 1, 0, 0, 0, 0, 0, 0, 0<br/>0, 0, 0, 0, 0, 0, 0, 0, 0, 0, 0, 9, 0, 0<br/>0, 0, 0, 0, 0, 1, 1, 0, 0, 0, 0, 0, 0, 0<br/>0, 0, 0, 0, 2, 0, 0, 0, 0, 0, 0, 0, 0, 0<br/>0, 0, 0, 1, 0, 0, 0, 0, 1, 7, 0, 0, 0, 0<br/>0, 0, 0, 0, 0, 0, 0, 0, 0, 0, 0, 0, 0, 0<br/>0, 7, 1, 0, 0, 0, 0, 0, 0, 0, 0, 0, 0, 0<br/>0, 0, 0, 0, 0, 0, 0, 6, 0, 0, 0, 0, 0, 0<br/>0, 0, 0, 0, 0, 0, 0, 0, 0, 0, 0, 0, 0, 10<br/>1, 0, 0, 0, 0, 0, 0, 0, 0, 0, 0, 0, 0, 0<br/>0, 2, 2, 0, 0, 3, 7, 0, 0, 0, 0, 0, 0, 0<br/>0, 1, 0, 0, 0, 0, 0, 0, 0, 1, 0]<br/>class = 1 0 1 4 0 0 0 0>, fillcolor="#fafefe"] ;
2 -> 4 ;
5 [label=<entropy = 3.633<br/>samples = 103<br/>value = [0.0, 0.0, 22.0, 0.0, 0.0, 0.0, 0.0, 0.0, 0.0, 0.0<br/>0.0, 0.0, 0.0, 0.0, 0.0, 0.0, 0.0, 0.0, 0.0, 0.0<br/>0.0, 0.0, 0.0, 0.0, 0.0, 0.0, 0.0, 0.0, 0.0, 0.0<br/>0.0, 0.0, 0.0, 0.0, 0.0, 0.0, 0.0, 0.0, 0.0, 0.0<br/>0.0, 0.0, 0.0, 0.0, 0.0, 0.0, 0.0, 0.0, 0.0, 0.0<br/>0.0, 0.0, 0.0, 0.0, 0.0, 0.0, 0.0, 0.0, 0.0, 0.0<br/>0.0, 0.0, 0.0, 0.0, 0.0, 0.0, 0.0, 0.0, 0.0, 0.0<br/>0.0, 0.0, 0.0, 0.0, 0.0, 0.0, 0.0, 0.0, 0.0, 0.0<br/>0.0, 0.0, 0.0, 0.0, 1.0, 0.0, 0.0, 0.0, 0.0, 0.0<br/>0.0, 0.0, 0.0, 0.0, 0.0, 0.0, 0.0, 0.0, 0.0, 0.0<br/>0.0, 0.0, 0.0, 0.0, 0.0, 0.0, 0.0, 0.0, 0.0, 0.0<br/>0.0, 0.0, 0.0, 1.0, 0.0, 0.0, 0.0, 0.0, 0.0, 0.0<br/>0.0, 0.0, 0.0, 9.0, 0.0, 0.0, 0.0, 0.0, 0.0, 0.0<br/>0.0, 0.0, 0.0, 0.0, 0.0, 0.0, 0.0, 0.0, 0.0, 0.0<br/>0.0, 0.0, 0.0, 8.0, 0.0, 0.0, 0.0, 0.0, 0.0, 0.0<br/>0.0, 0.0, 0.0, 0.0, 0.0, 0.0, 0.0, 0.0, 0.0, 0.0<br/>0.0, 0.0, 0.0, 19.0, 1.0, 0.0, 0.0, 0.0, 0.0, 0.0<br/>0.0, 0.0, 0.0, 0.0, 0.0, 0.0, 0.0, 0.0, 0.0, 0.0<br/>1.0, 0.0, 0.0, 5.0, 4.0, 0.0, 0.0, 0.0, 0.0, 0.0<br/>0.0, 0.0, 0.0, 0.0, 0.0, 0.0, 0.0, 0.0, 0.0, 0.0<br/>0.0, 0.0, 0.0, 0.0, 0.0, 0.0, 0.0, 0.0, 0.0, 0.0<br/>0.0, 0.0, 0.0, 0.0, 0.0, 0.0, 0.0, 0.0, 0.0, 0.0<br/>0.0, 0.0, 0.0, 0.0, 0.0, 0.0, 0.0, 0.0, 0.0, 0.0<br/>0.0, 0.0, 0.0, 0.0, 0.0, 0.0, 0.0, 0.0, 0.0, 0.0<br/>0.0, 0.0, 0.0, 0.0, 1.0, 0.0, 0.0, 0.0, 0.0, 0.0<br/>0.0, 0.0, 0.0, 0.0, 0.0, 0.0, 0.0, 0.0, 0.0, 0.0<br/>0.0, 0.0, 0.0, 2.0, 0.0, 0.0, 0.0, 0.0, 0.0, 0.0<br/>0.0, 0.0, 0.0, 0.0, 0.0, 0.0, 0.0, 0.0, 0.0, 0.0<br/>0.0, 0.0, 0.0, 0.0, 0.0, 0.0, 0.0, 0.0, 0.0, 0.0<br/>0.0, 0.0, 0.0, 0.0, 0.0, 0.0, 0.0, 0.0, 0.0, 0.0<br/>0.0, 0.0, 0.0, 5.0, 0.0, 0.0, 0.0, 0.0, 0.0, 0.0<br/>0.0, 0.0, 0.0, 0.0, 0.0, 0.0, 0.0, 0.0, 0.0, 0.0<br/>0.0, 0.0, 0.0, 7.0, 0.0, 0.0, 0.0, 0.0, 0.0, 0.0<br/>0.0, 0.0, 0.0, 0.0, 0.0, 0.0, 0.0, 0.0, 0.0, 0.0<br/>0.0, 0.0, 0.0, 6.0, 0.0, 0.0, 0.0, 0.0, 0.0, 0.0<br/>0.0, 0.0, 0.0, 0.0, 0.0, 0.0, 0.0, 0.0, 0.0, 0.0<br/>0.0, 0.0, 0.0, 4.0, 1.0, 0.0, 0.0, 0.0, 0.0, 0.0<br/>0.0, 0.0, 0.0, 0.0, 0.0, 0.0, 0.0, 0.0, 0.0, 0.0<br/>0.0, 0.0, 0.0, 3.0, 2.0, 0.0, 0.0, 0.0, 0.0, 0.0<br/>0.0, 0.0, 0.0, 0.0, 0.0, 0.0, 0.0, 0.0, 0.0, 0.0<br/>0.0, 1.0, 0.0]<br/>class = 0 0 1 0 0 0 0 0>, fillcolor="#fefbf8"] ;
4 -> 5 ;
6 [label=<entropy = 4.19<br/>samples = 160<br/>value = [9, 0, 21, 3, 0, 0, 0, 1, 0, 0, 0, 0, 0, 1<br/>0, 0, 0, 0, 0, 0, 0, 0, 0, 2, 0, 0, 0, 0<br/>0, 0, 0, 1, 0, 0, 0, 0, 0, 0, 0, 0, 0, 0<br/>0, 1, 1, 0, 0, 0, 0, 0, 0, 0, 0, 0, 0, 0<br/>0, 0, 0, 0, 1, 0, 0, 28, 0, 0, 0, 0, 0, 0<br/>0, 1, 1, 0, 0, 1, 0, 0, 0, 0, 0, 0, 0, 1<br/>4, 0, 0, 0, 0, 0, 1, 0, 0, 0, 0, 0, 0, 0<br/>0, 0, 0, 1, 0, 2, 0, 0, 0, 0, 0, 0, 0, 0<br/>0, 0, 0, 0, 0, 0, 0, 0, 0, 0, 0, 0, 0, 0<br/>0, 0, 0, 0, 0, 0, 0, 0, 0, 0, 0, 0, 0, 0<br/>0, 0, 0, 1, 1, 0, 0, 0, 0, 0, 0, 0, 0, 0<br/>0, 0, 0, 0, 0, 0, 0, 0, 0, 29, 0, 0, 0, 0<br/>0, 0, 0, 0, 1, 0, 0, 0, 0, 0, 0, 1, 0, 0<br/>0, 0, 9, 0, 0, 0, 0, 0, 0, 0, 0, 0, 0, 0<br/>0, 0, 0, 0, 0, 0, 0, 3, 0, 0, 0, 0, 0, 0<br/>0, 0, 0, 0, 0, 0, 0, 0, 0, 0, 0, 0, 0, 1<br/>0, 0, 0, 0, 1, 0, 0, 0, 0, 0, 0, 0, 0, 0<br/>0, 0, 0, 0, 0, 0, 0, 0, 0, 0, 0, 0, 0, 0<br/>0, 0, 0, 0, 0, 0, 0, 0, 0, 0, 0, 7, 0, 0<br/>0, 0, 0, 0, 0, 1, 1, 0, 0, 0, 0, 0, 0, 0<br/>0, 0, 0, 0, 2, 0, 0, 0, 0, 0, 0, 0, 0, 0<br/>0, 0, 0, 1, 0, 0, 0, 0, 1, 2, 0, 0, 0, 0<br/>0, 0, 0, 0, 0, 0, 0, 0, 0, 0, 0, 0, 0, 0<br/>0, 0, 1, 0, 0, 0, 0, 0, 0, 0, 0, 0, 0, 0<br/>0, 0, 0, 0, 0, 0, 0, 0, 0, 0, 0, 0, 0, 0<br/>0, 0, 0, 0, 0, 0, 0, 0, 0, 0, 0, 0, 0, 6<br/>0, 0, 0, 0, 0, 0, 0, 0, 0, 0, 0, 0, 0, 0<br/>0, 2, 2, 0, 0, 0, 5, 0, 0, 0, 0, 0, 0, 0<br/>0, 1, 0, 0, 0, 0, 0, 0, 0, 0, 0]<br/>class = 1 0 1 4 0 0 0 0>, fillcolor="#feffff"] ;
4 -> 6 ;
}
